digraph Tree {
node [shape=box, style="filled, rounded", color="black", fontname=helvetica] ;
edge [fontname=helvetica] ;
0 [label="petal width (cm) <= 0.7\ngini = 0.66\nsamples = 91\nvalue = [45, 62, 43]\nclass = versicolor", fillcolor="#39e58129"] ;
1 [label="gini = 0.0\nsamples = 30\nvalue = [45, 0, 0]\nclass = setosa", fillcolor="#e58139ff"] ;
0 -> 1 [labeldistance=2.5, labelangle=45, headlabel="True"] ;
2 [label="petal width (cm) <= 1.65\ngini = 0.48\nsamples = 61\nvalue = [0, 62, 43]\nclass = versicolor", fillcolor="#39e5814e"] ;
0 -> 2 [labeldistance=2.5, labelangle=-45, headlabel="False"] ;
3 [label="petal length (cm) <= 4.95\ngini = 0.09\nsamples = 32\nvalue = [0, 57, 3]\nclass = versicolor", fillcolor="#39e581f2"] ;
2 -> 3 ;
4 [label="gini = 0.0\nsamples = 29\nvalue = [0, 56, 0]\nclass = versicolor", fillcolor="#39e581ff"] ;
3 -> 4 ;
5 [label="sepal width (cm) <= 2.45\ngini = 0.38\nsamples = 3\nvalue = [0, 1, 3]\nclass = virginica", fillcolor="#8139e5aa"] ;
3 -> 5 ;
6 [label="gini = 0.0\nsamples = 1\nvalue = [0, 0, 2]\nclass = virginica", fillcolor="#8139e5ff"] ;
5 -> 6 ;
7 [label="sepal length (cm) <= 6.6\ngini = 0.5\nsamples = 2\nvalue = [0, 1, 1]\nclass = versicolor", fillcolor="#39e58100"] ;
5 -> 7 ;
8 [label="gini = 0.0\nsamples = 1\nvalue = [0, 1, 0]\nclass = versicolor", fillcolor="#39e581ff"] ;
7 -> 8 ;
9 [label="gini = 0.0\nsamples = 1\nvalue = [0, 0, 1]\nclass = virginica", fillcolor="#8139e5ff"] ;
7 -> 9 ;
10 [label="petal width (cm) <= 1.85\ngini = 0.2\nsamples = 29\nvalue = [0, 5, 40]\nclass = virginica", fillcolor="#8139e5df"] ;
2 -> 10 ;
11 [label="petal length (cm) <= 4.65\ngini = 0.5\nsamples = 6\nvalue = [0, 5, 6]\nclass = virginica", fillcolor="#8139e52a"] ;
10 -> 11 ;
12 [label="gini = 0.0\nsamples = 1\nvalue = [0, 0, 2]\nclass = virginica", fillcolor="#8139e5ff"] ;
11 -> 12 ;
13 [label="sepal length (cm) <= 5.95\ngini = 0.49\nsamples = 5\nvalue = [0, 5, 4]\nclass = versicolor", fillcolor="#39e58133"] ;
11 -> 13 ;
14 [label="gini = 0.0\nsamples = 1\nvalue = [0, 3, 0]\nclass = versicolor", fillcolor="#39e581ff"] ;
13 -> 14 ;
15 [label="petal length (cm) <= 4.95\ngini = 0.44\nsamples = 4\nvalue = [0, 2, 4]\nclass = virginica", fillcolor="#8139e57f"] ;
13 -> 15 ;
16 [label="gini = 0.0\nsamples = 2\nvalue = [0, 0, 3]\nclass = virginica", fillcolor="#8139e5ff"] ;
15 -> 16 ;
17 [label="petal width (cm) <= 1.75\ngini = 0.44\nsamples = 2\nvalue = [0, 2, 1]\nclass = versicolor", fillcolor="#39e5817f"] ;
15 -> 17 ;
18 [label="gini = 0.0\nsamples = 1\nvalue = [0, 2, 0]\nclass = versicolor", fillcolor="#39e581ff"] ;
17 -> 18 ;
19 [label="gini = 0.0\nsamples = 1\nvalue = [0, 0, 1]\nclass = virginica", fillcolor="#8139e5ff"] ;
17 -> 19 ;
20 [label="gini = 0.0\nsamples = 23\nvalue = [0, 0, 34]\nclass = virginica", fillcolor="#8139e5ff"] ;
10 -> 20 ;
}